digraph Tree {
node [shape=box, style="filled, rounded", color="black", fontname=helvetica] ;
edge [fontname=helvetica] ;
0 [label="playability <= 0.5\ngini = 0.366\nsamples = 10000\nvalue = [7585, 2415]\nclass = won't play", fillcolor="#e58139ae"] ;
1 [label="gini = 0.0\nsamples = 4987\nvalue = [4987, 0]\nclass = won't play", fillcolor="#e58139ff"] ;
0 -> 1 [labeldistance=2.5, labelangle=45, headlabel="True"] ;
2 [label="nice game <= 0.5\ngini = 0.499\nsamples = 5013\nvalue = [2598, 2415]\nclass = won't play", fillcolor="#e5813912"] ;
0 -> 2 [labeldistance=2.5, labelangle=-45, headlabel="False"] ;
3 [label="gender <= 0.5\ngini = 0.342\nsamples = 2518\nvalue = [1966, 552]\nclass = won't play", fillcolor="#e58139b7"] ;
2 -> 3 ;
4 [label="gini = 0.0\nsamples = 1296\nvalue = [1296, 0]\nclass = won't play", fillcolor="#e58139ff"] ;
3 -> 4 ;
5 [label="cost <= 0.5\ngini = 0.495\nsamples = 1222\nvalue = [670, 552]\nclass = won't play", fillcolor="#e581392d"] ;
3 -> 5 ;
6 [label="career <= 0.5\ngini = 0.434\nsamples = 613\nvalue = [195, 418]\nclass = will play", fillcolor="#399de588"] ;
5 -> 6 ;
7 [label="cost time <= 0.5\ngini = 0.496\nsamples = 307\nvalue = [168, 139]\nclass = won't play", fillcolor="#e581392c"] ;
6 -> 7 ;
8 [label="gini = 0.0\nsamples = 153\nvalue = [153, 0]\nclass = won't play", fillcolor="#e58139ff"] ;
7 -> 8 ;
9 [label="environment <= 0.5\ngini = 0.176\nsamples = 154\nvalue = [15, 139]\nclass = will play", fillcolor="#399de5e3"] ;
7 -> 9 ;
10 [label="ad <= 0.5\ngini = 0.344\nsamples = 68\nvalue = [15, 53]\nclass = will play", fillcolor="#399de5b7"] ;
9 -> 10 ;
11 [label="activity <= 0.5\ngini = 0.498\nsamples = 32\nvalue = [15, 17]\nclass = will play", fillcolor="#399de51e"] ;
10 -> 11 ;
12 [label="gini = 0.0\nsamples = 15\nvalue = [15, 0]\nclass = won't play", fillcolor="#e58139ff"] ;
11 -> 12 ;
13 [label="gini = 0.0\nsamples = 17\nvalue = [0, 17]\nclass = will play", fillcolor="#399de5ff"] ;
11 -> 13 ;
14 [label="gini = 0.0\nsamples = 36\nvalue = [0, 36]\nclass = will play", fillcolor="#399de5ff"] ;
10 -> 14 ;
15 [label="gini = 0.0\nsamples = 86\nvalue = [0, 86]\nclass = will play", fillcolor="#399de5ff"] ;
9 -> 15 ;
16 [label="environment <= 0.5\ngini = 0.161\nsamples = 306\nvalue = [27, 279]\nclass = will play", fillcolor="#399de5e6"] ;
6 -> 16 ;
17 [label="ad <= 0.5\ngini = 0.32\nsamples = 135\nvalue = [27, 108]\nclass = will play", fillcolor="#399de5bf"] ;
16 -> 17 ;
18 [label="activity <= 0.5\ngini = 0.493\nsamples = 61\nvalue = [27, 34]\nclass = will play", fillcolor="#399de534"] ;
17 -> 18 ;
19 [label="gini = 0.0\nsamples = 27\nvalue = [27, 0]\nclass = won't play", fillcolor="#e58139ff"] ;
18 -> 19 ;
20 [label="gini = 0.0\nsamples = 34\nvalue = [0, 34]\nclass = will play", fillcolor="#399de5ff"] ;
18 -> 20 ;
21 [label="gini = 0.0\nsamples = 74\nvalue = [0, 74]\nclass = will play", fillcolor="#399de5ff"] ;
17 -> 21 ;
22 [label="gini = 0.0\nsamples = 171\nvalue = [0, 171]\nclass = will play", fillcolor="#399de5ff"] ;
16 -> 22 ;
23 [label="cost time <= 0.5\ngini = 0.343\nsamples = 609\nvalue = [475, 134]\nclass = won't play", fillcolor="#e58139b7"] ;
5 -> 23 ;
24 [label="gini = 0.0\nsamples = 309\nvalue = [309, 0]\nclass = won't play", fillcolor="#e58139ff"] ;
23 -> 24 ;
25 [label="career <= 0.5\ngini = 0.494\nsamples = 300\nvalue = [166, 134]\nclass = won't play", fillcolor="#e5813931"] ;
23 -> 25 ;
26 [label="activity <= 0.5\ngini = 0.218\nsamples = 153\nvalue = [19, 134]\nclass = will play", fillcolor="#399de5db"] ;
25 -> 26 ;
27 [label="environment <= 0.5\ngini = 0.382\nsamples = 74\nvalue = [19, 55]\nclass = will play", fillcolor="#399de5a7"] ;
26 -> 27 ;
28 [label="ad <= 0.5\ngini = 0.482\nsamples = 32\nvalue = [19, 13]\nclass = won't play", fillcolor="#e5813951"] ;
27 -> 28 ;
29 [label="gini = 0.0\nsamples = 19\nvalue = [19, 0]\nclass = won't play", fillcolor="#e58139ff"] ;
28 -> 29 ;
30 [label="gini = 0.0\nsamples = 13\nvalue = [0, 13]\nclass = will play", fillcolor="#399de5ff"] ;
28 -> 30 ;
31 [label="gini = 0.0\nsamples = 42\nvalue = [0, 42]\nclass = will play", fillcolor="#399de5ff"] ;
27 -> 31 ;
32 [label="gini = 0.0\nsamples = 79\nvalue = [0, 79]\nclass = will play", fillcolor="#399de5ff"] ;
26 -> 32 ;
33 [label="gini = 0.0\nsamples = 147\nvalue = [147, 0]\nclass = won't play", fillcolor="#e58139ff"] ;
25 -> 33 ;
34 [label="cost <= 0.5\ngini = 0.378\nsamples = 2495\nvalue = [632, 1863]\nclass = will play", fillcolor="#399de5a8"] ;
2 -> 34 ;
35 [label="gini = 0.0\nsamples = 1251\nvalue = [0, 1251]\nclass = will play", fillcolor="#399de5ff"] ;
34 -> 35 ;
36 [label="career <= 0.5\ngini = 0.5\nsamples = 1244\nvalue = [632, 612]\nclass = won't play", fillcolor="#e5813908"] ;
34 -> 36 ;
37 [label="gini = 0.0\nsamples = 612\nvalue = [0, 612]\nclass = will play", fillcolor="#399de5ff"] ;
36 -> 37 ;
38 [label="gini = 0.0\nsamples = 632\nvalue = [632, 0]\nclass = won't play", fillcolor="#e58139ff"] ;
36 -> 38 ;
}